<?xml version="1.0" ?>

<BIF VERSION="0.3">
<NETWORK>
<NAME>unnamedBN</NAME>
<PROPERTY>software aGrUM</PROPERTY>

<!-- Variables -->
<VARIABLE TYPE="nature">
	<NAME>TODt</NAME>
	<PROPERTY>TODt</PROPERTY>
	<OUTCOME>0</OUTCOME>
	<OUTCOME>1</OUTCOME>
</VARIABLE>

<VARIABLE TYPE="nature">
	<NAME>PDt</NAME>
	<PROPERTY>PDt</PROPERTY>
	<OUTCOME>0</OUTCOME>
	<OUTCOME>3.866393</OUTCOME>
	<OUTCOME>6.128089</OUTCOME>
	<OUTCOME>7.732787</OUTCOME>
	<OUTCOME>8.977487</OUTCOME>
	<OUTCOME>9.994482</OUTCOME>
	<OUTCOME>10.85434</OUTCOME>
	<OUTCOME>11.59918</OUTCOME>
	<OUTCOME>12.25618</OUTCOME>
	<OUTCOME>13.37552</OUTCOME>
	<OUTCOME>14.30736</OUTCOME>
</VARIABLE>

<VARIABLE TYPE="nature">
	<NAME>WPt</NAME>
	<PROPERTY>WPt</PROPERTY>
	<OUTCOME>25</OUTCOME>
</VARIABLE>

<VARIABLE TYPE="nature">
	<NAME>TOD0</NAME>
	<PROPERTY>TOD0</PROPERTY>
	<OUTCOME>0</OUTCOME>
	<OUTCOME>1</OUTCOME>
</VARIABLE>

<VARIABLE TYPE="nature">
	<NAME>PD0</NAME>
	<PROPERTY>PD0</PROPERTY>
	<OUTCOME>0</OUTCOME>
	<OUTCOME>3.866393</OUTCOME>
	<OUTCOME>6.128089</OUTCOME>
	<OUTCOME>7.732787</OUTCOME>
	<OUTCOME>8.977487</OUTCOME>
	<OUTCOME>9.994482</OUTCOME>
	<OUTCOME>10.85434</OUTCOME>
	<OUTCOME>11.59918</OUTCOME>
	<OUTCOME>12.25618</OUTCOME>
	<OUTCOME>13.37552</OUTCOME>
	<OUTCOME>14.30736</OUTCOME>
</VARIABLE>

<VARIABLE TYPE="nature">
	<NAME>WP0</NAME>
	<PROPERTY>WP0</PROPERTY>
	<OUTCOME>25</OUTCOME>
</VARIABLE>

<!-- Probability distributions -->
<DEFINITION>
	<FOR>TODt</FOR>
	<TABLE>
		0.499433 0.500567
	</TABLE>
</DEFINITION>
<DEFINITION>
	<FOR>PDt</FOR>
	<GIVEN>WPt</GIVEN>
	<GIVEN>TODt</GIVEN>
	<GIVEN>PD0</GIVEN>
	<TABLE>
		0.987833 0.00532319 0.000760456 0.000760456 0.000760456 0.000760456 0.000760456 0.000760456 0.000760456 0.000760456 0.000760456
		0.259259 0.407407 0.037037 0.037037 0.037037 0.037037 0.037037 0.037037 0.037037 0.037037 0.037037
		0.0909091 0.0909091 0.0909091 0.0909091 0.0909091 0.0909091 0.0909091 0.0909091 0.0909091 0.0909091 0.0909091
		0.0909091 0.0909091 0.0909091 0.0909091 0.0909091 0.0909091 0.0909091 0.0909091 0.0909091 0.0909091 0.0909091
		0.166667 0.0833333 0.0833333 0.0833333 0.0833333 0.0833333 0.0833333 0.0833333 0.0833333 0.0833333 0.0833333
		0.0909091 0.0909091 0.0909091 0.0909091 0.0909091 0.0909091 0.0909091 0.0909091 0.0909091 0.0909091 0.0909091
		0.0909091 0.0909091 0.0909091 0.0909091 0.0909091 0.0909091 0.0909091 0.0909091 0.0909091 0.0909091 0.0909091
		0.0909091 0.0909091 0.0909091 0.0909091 0.0909091 0.0909091 0.0909091 0.0909091 0.0909091 0.0909091 0.0909091
		0.0909091 0.0909091 0.0909091 0.0909091 0.0909091 0.0909091 0.0909091 0.0909091 0.0909091 0.0909091 0.0909091
		0.0909091 0.0909091 0.0909091 0.0909091 0.0909091 0.0909091 0.0909091 0.0909091 0.0909091 0.0909091 0.0909091
		0.0909091 0.0909091 0.0909091 0.0909091 0.0909091 0.0909091 0.0909091 0.0909091 0.0909091 0.0909091 0.0909091
		0.0645161 0.0322581 0.0322581 0.0645161 0.16129 0.354839 0.0645161 0.0322581 0.0967742 0.0645161 0.0322581
		0.0909091 0.0909091 0.0909091 0.0909091 0.0909091 0.0909091 0.0909091 0.0909091 0.0909091 0.0909091 0.0909091
		0.0714286 0.0714286 0.214286 0.0714286 0.142857 0.0714286 0.0714286 0.0714286 0.0714286 0.0714286 0.0714286
		0.04 0.0133333 0.0266667 0.773333 0.0533333 0.0133333 0.0266667 0.0133333 0.0133333 0.0133333 0.0133333
		0.0120482 0.00200803 0.00200803 0.0100402 0.925703 0.0281124 0.00200803 0.00200803 0.0120482 0.00200803 0.00200803
		0.0142349 0.00177936 0.00177936 0.00355872 0.0213523 0.914591 0.0160142 0.00177936 0.00177936 0.0213523 0.00177936
		0.00564972 0.00564972 0.00564972 0.0112994 0.0112994 0.0338983 0.875706 0.0282486 0.00564972 0.00564972 0.0112994
		0.0416667 0.0416667 0.0416667 0.0416667 0.0416667 0.125 0.125 0.416667 0.0416667 0.0416667 0.0416667
		0.0555556 0.0555556 0.0555556 0.0555556 0.444444 0.0555556 0.0555556 0.0555556 0.0555556 0.0555556 0.0555556
		0.217391 0.0434783 0.0434783 0.0434783 0.0869565 0.347826 0.0434783 0.0434783 0.0434783 0.0434783 0.0434783
		0.166667 0.0833333 0.0833333 0.0833333 0.0833333 0.0833333 0.0833333 0.0833333 0.0833333 0.0833333 0.0833333
	</TABLE>
</DEFINITION>
<DEFINITION>
	<FOR>WPt</FOR>
	<TABLE>
		1
	</TABLE>
</DEFINITION>
<DEFINITION>
	<FOR>TOD0</FOR>
	<TABLE>
		0.499056 0.500944
	</TABLE>
</DEFINITION>
<DEFINITION>
	<FOR>PD0</FOR>
	<GIVEN>WP0</GIVEN>
	<GIVEN>TOD0</GIVEN>
	<TABLE>
		0.980466 0.0127724 0.000751315 0.000751315 0.000751315 0.000751315 0.000751315 0.000751315 0.000751315 0.000751315 0.000751315
		0.0157186 0.000748503 0.00299401 0.0486527 0.366018 0.413174 0.125 0.010479 0.00598802 0.00973054 0.00149701
	</TABLE>
</DEFINITION>
<DEFINITION>
	<FOR>WP0</FOR>
	<TABLE>
		1
	</TABLE>
</DEFINITION>

</NETWORK>
</BIF>
